FANN_FLO_2.1
num_layers=3
learning_rate=0.700000
connection_rate=1.000000
network_type=0
learning_momentum=0.000000
training_algorithm=2
train_error_function=1
train_stop_function=0
cascade_output_change_fraction=0.010000
quickprop_decay=-0.000100
quickprop_mu=1.750000
rprop_increase_factor=1.200000
rprop_decrease_factor=0.500000
rprop_delta_min=0.000000
rprop_delta_max=50.000000
rprop_delta_zero=0.100000
cascade_output_stagnation_epochs=12
cascade_candidate_change_fraction=0.010000
cascade_candidate_stagnation_epochs=12
cascade_max_out_epochs=150
cascade_min_out_epochs=50
cascade_max_cand_epochs=150
cascade_min_cand_epochs=50
cascade_num_candidate_groups=2
bit_fail_limit=3.49999994039535522461e-01
cascade_candidate_limit=1.00000000000000000000e+03
cascade_weight_multiplier=4.00000005960464477539e-01
cascade_activation_functions_count=10
cascade_activation_functions=3 5 7 8 10 11 14 15 16 17 
cascade_activation_steepnesses_count=4
cascade_activation_steepnesses=2.50000000000000000000e-01 5.00000000000000000000e-01 7.50000000000000000000e-01 1.00000000000000000000e+00 
layer_sizes=27 11 5 
scale_included=0
neurons (num_inputs, activation_function, activation_steepness)=(0, 0, 0.00000000000000000000e+00) (0, 0, 0.00000000000000000000e+00) (0, 0, 0.00000000000000000000e+00) (0, 0, 0.00000000000000000000e+00) (0, 0, 0.00000000000000000000e+00) (0, 0, 0.00000000000000000000e+00) (0, 0, 0.00000000000000000000e+00) (0, 0, 0.00000000000000000000e+00) (0, 0, 0.00000000000000000000e+00) (0, 0, 0.00000000000000000000e+00) (0, 0, 0.00000000000000000000e+00) (0, 0, 0.00000000000000000000e+00) (0, 0, 0.00000000000000000000e+00) (0, 0, 0.00000000000000000000e+00) (0, 0, 0.00000000000000000000e+00) (0, 0, 0.00000000000000000000e+00) (0, 0, 0.00000000000000000000e+00) (0, 0, 0.00000000000000000000e+00) (0, 0, 0.00000000000000000000e+00) (0, 0, 0.00000000000000000000e+00) (0, 0, 0.00000000000000000000e+00) (0, 0, 0.00000000000000000000e+00) (0, 0, 0.00000000000000000000e+00) (0, 0, 0.00000000000000000000e+00) (0, 0, 0.00000000000000000000e+00) (0, 0, 0.00000000000000000000e+00) (0, 0, 0.00000000000000000000e+00) (27, 5, 5.00000000000000000000e-01) (27, 5, 5.00000000000000000000e-01) (27, 5, 5.00000000000000000000e-01) (27, 5, 5.00000000000000000000e-01) (27, 5, 5.00000000000000000000e-01) (27, 5, 5.00000000000000000000e-01) (27, 5, 5.00000000000000000000e-01) (27, 5, 5.00000000000000000000e-01) (27, 5, 5.00000000000000000000e-01) (27, 5, 5.00000000000000000000e-01) (0, 5, 0.00000000000000000000e+00) (11, 5, 5.00000000000000000000e-01) (11, 5, 5.00000000000000000000e-01) (11, 5, 5.00000000000000000000e-01) (11, 5, 5.00000000000000000000e-01) (0, 5, 0.00000000000000000000e+00) 
connections (connected_to_neuron, weight)=(0, 3.49278306961059570312e+00) (1, -4.93384599685668945312e-01) (2, -3.60450983047485351562e+00) (3, 1.93916380405426025391e-01) (4, -1.04990696907043457031e+00) (5, 7.25056266784667968750e+00) (6, -3.21525335311889648438e+00) (7, -3.02311396598815917969e+00) (8, -1.00642943382263183594e+00) (9, -4.57028675079345703125e+00) (10, -1.67209625244140625000e+01) (11, 7.85701560974121093750e+00) (12, -1.06242871284484863281e+00) (13, -2.71288490295410156250e+00) (14, 2.83315582275390625000e+01) (15, -1.35316753387451171875e+00) (16, 3.58110237121582031250e+01) (17, -2.47090053558349609375e+00) (18, -1.01328825950622558594e+00) (19, 1.49444788694381713867e-02) (20, -1.30240869522094726562e+00) (21, -3.33924531936645507812e+00) (22, 1.48932838439941406250e+00) (23, -1.40008509159088134766e-01) (24, 7.20638580322265625000e+01) (25, -2.99255943298339843750e+01) (26, -8.20313096046447753906e-01) (0, -4.49441105127334594727e-01) (1, -1.74157452583312988281e+00) (2, -5.10774731636047363281e-01) (3, -3.60431253910064697266e-01) (4, -2.66152679920196533203e-01) (5, 1.69436380267143249512e-01) (6, -3.05353701114654541016e-01) (7, -1.46013051271438598633e-02) (8, -1.95450901985168457031e-01) (9, -1.45576791763305664062e+01) (10, -7.09569096565246582031e-01) (11, -3.74709725379943847656e-01) (12, -4.04251009225845336914e-01) (13, -3.59460413455963134766e-01) (14, -1.10941063612699508667e-02) (15, -8.83563756942749023438e-01) (16, -3.92953147888183593750e+01) (17, -6.96304261684417724609e-01) (18, -7.46129989624023437500e-01) (19, 1.69931635260581970215e-01) (20, -2.99700975418090820312e+00) (21, -1.59228071570396423340e-01) (22, -1.33672893047332763672e-01) (23, -3.09888601303100585938e-01) (24, 1.01514768600463867188e+01) (25, -2.49740390777587890625e+01) (26, -3.25019121170043945312e-01) (0, -2.39801257848739624023e-02) (1, 4.08835649490356445312e-01) (2, -1.18453466892242431641e+00) (3, -1.66930407285690307617e-01) (4, -3.86796630918979644775e-02) (5, 4.88725280761718750000e+00) (6, -1.76539382934570312500e+01) (7, -5.14407634735107421875e-01) (8, -9.73127746582031250000e+00) (9, 9.55716228485107421875e+00) (10, -2.53234529495239257812e+00) (11, 1.36257886886596679688e+00) (12, 1.51114508509635925293e-01) (13, -6.60033941268920898438e-01) (14, 4.59289133548736572266e-01) (15, 8.27425122261047363281e-01) (16, 2.29066867828369140625e+01) (17, 6.08208060264587402344e-01) (18, 1.08929395675659179688e+00) (19, -3.37491869926452636719e-01) (20, -2.56319689750671386719e+00) (21, 3.06456953287124633789e-01) (22, 5.25294828414916992188e+00) (23, 3.44893366098403930664e-01) (24, 5.84960060119628906250e+01) (25, -8.95819854736328125000e+00) (26, -1.00153125822544097900e-01) (0, 2.11051236838102340698e-02) (1, -1.51172578334808349609e+00) (2, -8.35822299122810363770e-02) (3, -6.81083370000123977661e-03) (4, -6.62114918231964111328e-01) (5, 5.83053541183471679688e+00) (6, 5.85118383169174194336e-02) (7, 1.70142984390258789062e+00) (8, 2.52652049064636230469e-01) (9, -4.46415748596191406250e+01) (10, -1.57229065895080566406e+00) (11, -9.32581946253776550293e-02) (12, -7.23141610622406005859e-01) (13, -7.47980892658233642578e-01) (14, 6.03875041007995605469e-01) (15, -7.01581180095672607422e-01) (16, -2.26002750396728515625e+01) (17, -5.99514126777648925781e-01) (18, -3.86127233505249023438e+00) (19, 9.68886196613311767578e-01) (20, -1.03995037078857421875e+00) (21, 2.09728002548217773438e-01) (22, 5.86441755294799804688e+00) (23, 2.64774775505065917969e+00) (24, 6.45008039474487304688e+00) (25, -6.68687295913696289062e+00) (26, -2.27585256099700927734e-01) (0, -1.07575833797454833984e+00) (1, 3.53812408447265625000e+00) (2, -1.36319935321807861328e+00) (3, 2.38902974128723144531e+00) (4, -7.99630209803581237793e-02) (5, 1.03630504608154296875e+01) (6, 2.54356408119201660156e+00) (7, 1.02247419357299804688e+01) (8, -6.76610410213470458984e-01) (9, -5.35007476806640625000e+00) (10, 1.61791477203369140625e+01) (11, -1.01045775413513183594e+00) (12, 6.05299711227416992188e+00) (13, 1.57155895233154296875e+00) (14, -8.70673835277557373047e-01) (15, -1.42591595649719238281e+00) (16, 3.73208761215209960938e-01) (17, 2.01868548989295959473e-01) (18, -9.46355581283569335938e-01) (19, 1.03842468261718750000e+01) (20, -7.93709754943847656250e-01) (21, -1.12326049804687500000e+00) (22, 9.89100341796875000000e+01) (23, 4.72616691589355468750e+01) (24, 5.89196872711181640625e+00) (25, -1.46975874900817871094e+00) (26, -2.21328362822532653809e-01) (0, 1.52838003635406494141e+00) (1, -6.84607923030853271484e-02) (2, 2.98199486732482910156e+00) (3, -7.77385234832763671875e-01) (4, 1.04187645018100738525e-01) (5, -8.95703315734863281250e-01) (6, -9.51415300369262695312e-01) (7, -2.26901364326477050781e+00) (8, 1.42793810367584228516e+00) (9, 7.89036810398101806641e-01) (10, -1.12616777420043945312e+00) (11, 4.70811188220977783203e-01) (12, -3.05674624443054199219e+00) (13, -1.90515369176864624023e-01) (14, 1.84902954101562500000e+00) (15, 2.54640460014343261719e+00) (16, -7.36057609319686889648e-02) (17, 1.45592182874679565430e-01) (18, 8.38084399700164794922e-01) (19, -3.64231586456298828125e+00) (20, 2.51227951049804687500e+00) (21, 2.00510835647583007812e+00) (22, -6.93534231185913085938e+00) (23, -2.85121011734008789062e+00) (24, -2.58038368225097656250e+01) (25, 3.56664586067199707031e+00) (26, 4.94857519865036010742e-01) (0, 2.20325446128845214844e+00) (1, -1.07529401779174804688e+00) (2, 1.12046372890472412109e+00) (3, -3.38471442461013793945e-01) (4, -5.16441524028778076172e-01) (5, 2.76943325996398925781e+00) (6, -1.67406392097473144531e+00) (7, -3.76558756828308105469e+00) (8, 1.15904547274112701416e-01) (9, 1.60148525238037109375e+00) (10, -4.58543434143066406250e+01) (11, 9.88824486732482910156e-01) (12, -4.63534069061279296875e+00) (13, -2.39342117309570312500e+00) (14, 2.33382368087768554688e+00) (15, 2.15515422821044921875e+00) (16, 1.25419974327087402344e+00) (17, 1.44833788275718688965e-01) (18, 1.03335392475128173828e+00) (19, -8.04297983646392822266e-01) (20, 1.48862612247467041016e+00) (21, 1.41510117053985595703e+00) (22, -9.59462404251098632812e-01) (23, -2.46614093780517578125e+01) (24, 2.14925289154052734375e+01) (25, -5.44540047645568847656e-01) (26, 2.61347264051437377930e-01) (0, 5.67831754684448242188e-01) (1, -1.85156784057617187500e+01) (2, 2.30603027343750000000e+00) (3, 4.24743145704269409180e-01) (4, -8.85634571313858032227e-02) (5, 2.23583006858825683594e+00) (6, 7.31868743896484375000e-01) (7, 3.71723031997680664062e+00) (8, 1.51806533336639404297e+00) (9, -4.46463279724121093750e+01) (10, -7.23150062561035156250e+00) (11, -2.07882213592529296875e+00) (12, -1.20071649551391601562e+01) (13, 1.38228327035903930664e-01) (14, 1.11898112297058105469e+00) (15, 2.37757608294486999512e-01) (16, -2.24746150970458984375e+01) (17, -2.05220937728881835938e+00) (18, -2.29513883590698242188e+00) (19, 5.00880765914916992188e+00) (20, 2.36093342304229736328e-01) (21, 4.86804246902465820312e+00) (22, 6.82487869262695312500e+00) (23, 6.64711046218872070312e+00) (24, 4.59248512983322143555e-01) (25, 1.23412743210792541504e-01) (26, 5.56162118911743164062e-01) (0, -6.62546217441558837891e-01) (1, 2.29790139198303222656e+00) (2, -1.64270341396331787109e+00) (3, 1.63772031664848327637e-01) (4, -1.27046629786491394043e-01) (5, 1.61768684387207031250e+01) (6, -2.89549112319946289062e-01) (7, 2.18144083023071289062e+00) (8, -2.79409551620483398438e+00) (9, 1.53381526470184326172e+00) (10, 1.86140191555023193359e+00) (11, 1.70772266387939453125e+00) (12, 1.77713131904602050781e+00) (13, -5.03701627254486083984e-01) (14, -7.54138290882110595703e-01) (15, -1.96520781517028808594e+00) (16, 6.68508625030517578125e+00) (17, 1.33111312985420227051e-01) (18, -5.26788294315338134766e-01) (19, 1.99295806884765625000e+00) (20, -2.82430171966552734375e+00) (21, -1.67594671249389648438e+00) (22, 7.44603881835937500000e+01) (23, -8.40303802490234375000e+00) (24, 9.87531585693359375000e+01) (25, -1.06788873672485351562e+01) (26, 1.67930703610181808472e-02) (0, -6.90562844276428222656e-01) (1, 3.71252298355102539062e-01) (2, 4.21813631057739257812e+00) (3, 2.02067703008651733398e-01) (4, 4.77282851934432983398e-01) (5, -1.56550335884094238281e+00) (6, 3.13790750503540039062e+00) (7, 3.28127652406692504883e-01) (8, 1.00816953182220458984e+00) (9, 4.87340390682220458984e-01) (10, 8.83522033691406250000e+00) (11, -1.58843326568603515625e+00) (12, 2.98430252075195312500e+00) (13, 1.99527549743652343750e+00) (14, -3.26605367660522460938e+00) (15, 4.98580515384674072266e-01) (16, -1.42890796065330505371e-01) (17, 1.88190996646881103516e-01) (18, -1.78953539580106735229e-02) (19, -2.98501014709472656250e-01) (20, 4.29438769817352294922e-01) (21, 3.14622497558593750000e+00) (22, -1.06734824180603027344e+00) (23, 2.10369423031806945801e-01) (24, -1.49794759750366210938e+01) (25, 5.83288621902465820312e+00) (26, 2.54222065210342407227e-01) (27, -2.48993411660194396973e-01) (28, 9.07106161117553710938e-01) (29, -3.81492793560028076172e-01) (30, 1.82568955421447753906e+00) (31, -1.95354425907135009766e+00) (32, 1.37028849124908447266e+00) (33, 5.42785167694091796875e-01) (34, 1.86550483703613281250e+01) (35, -2.45241699218750000000e+01) (36, 2.44629815220832824707e-01) (37, -6.04534242302179336548e-03) (27, -1.19183483123779296875e+01) (28, 1.19324433803558349609e+00) (29, 4.57038938999176025391e-01) (30, 3.13253700733184814453e-01) (31, 5.25066196918487548828e-01) (32, -1.97542399168014526367e-01) (33, -2.44580020904541015625e+01) (34, -6.71454334259033203125e+00) (35, -8.00811648368835449219e-01) (36, 1.59157109260559082031e+00) (37, -5.71938276290893554688e-01) (27, 5.38586914539337158203e-01) (28, 1.39669620990753173828e+00) (29, 1.82505571842193603516e+00) (30, 4.17218732833862304688e+00) (31, 1.06985569000244140625e+00) (32, -1.19432687759399414062e+01) (33, 2.27828192710876464844e+00) (34, 4.67484617233276367188e+00) (35, 3.68250894546508789062e+00) (36, -2.28245067596435546875e+00) (37, -4.48662877082824707031e-01) (27, 2.59326368570327758789e-01) (28, 2.51182377338409423828e-01) (29, 1.60336458683013916016e+00) (30, -1.80948853492736816406e+00) (31, -4.68210744857788085938e+00) (32, 2.43345785140991210938e+00) (33, 2.80458879470825195312e+00) (34, -1.27412309646606445312e+01) (35, 2.07124996185302734375e+00) (36, -1.61794841289520263672e+00) (37, -6.31206691265106201172e-01) 
